{
  "input_nodes": 5,
  "hidden_nodes": 8,
  "output_nodes": 2,
  "weights_ih": {
    "rows": 8,
    "cols": 5,
    "data": [
      [
        0.40190897685764176,
        -0.40212761943378433,
        0.13996700923318656,
        -0.10922748092746493,
        0.27578281444002506
      ],
      [
        -1.1944583281076804,
        -0.585172729245616,
        -0.04764764344410757,
        0.11224921275732419,
        0.08028972515855068
      ],
      [
        -0.9091802213732638,
        0.7600026814886078,
        1.109649416825933,
        0.6916816338128479,
        -0.663869835549123
      ],
      [
        0.7794715537483707,
        -0.7087107417669265,
        -0.8179190753572089,
        0.5734026568517825,
        0.06877656351562306
      ],
      [
        0.08933452018447195,
        -0.3140421633638253,
        0.42336177414238985,
        -0.421318037309914,
        -0.11145569901494579
      ],
      [
        0.09065479108859184,
        0.0024878091147611664,
        -0.6287691941937887,
        -1.2265317543075727,
        0.023000721656250618
      ],
      [
        -0.8845908620840996,
        -0.05163412413767959,
        -0.7544245123635229,
        -0.7841275780044942,
        -0.31597524654611825
      ],
      [
        0.15555634744077984,
        0.7917808814506342,
        -0.026893464181404786,
        -0.4735655932699964,
        0.2401394672795394
      ]
    ]
  },
  "weights_ho": {
    "rows": 2,
    "cols": 8,
    "data": [
      [
        0.9506403656349556,
        -0.6321879518062135,
        -0.5137514865955557,
        -0.2890031357877973,
        -0.8406330612832471,
        0.9772401631840533,
        0.8151366279920177,
        -0.8458881780305414
      ],
      [
        -0.4989338536801199,
        0.6562562603837732,
        -0.45811387601711373,
        -0.7849022751358319,
        -0.2734433499895989,
        -0.4731048717958354,
        0.924132280802644,
        0.8123592837976964
      ]
    ]
  },
  "bias_h": {
    "rows": 8,
    "cols": 1,
    "data": [
      [
        -0.9778148163586825
      ],
      [
        0.10383842347240343
      ],
      [
        0.18159915839706933
      ],
      [
        0.17662812936669386
      ],
      [
        0.9613187132588156
      ],
      [
        0.058093274734155195
      ],
      [
        0.4731177882208471
      ],
      [
        0.37696820208570225
      ]
    ]
  },
  "bias_o": {
    "rows": 2,
    "cols": 1,
    "data": [
      [
        0.10729316563129979
      ],
      [
        -0.6169635416875674
      ]
    ]
  },
  "learning_rate": 0.1,
  "activation_function": {}
}
