{
  "input_nodes": 5,
  "hidden_nodes": 8,
  "output_nodes": 2,
  "weights_ih": {
    "rows": 8,
    "cols": 5,
    "data": [
      [
        -1.0012426407850952,
        0.14574215251800093,
        0.17092305254470352,
        0.020600034967056424,
        -0.2499696421627329
      ],
      [
        1.3440417542054448,
        -0.051624307025154074,
        -1.3120030954278885,
        -0.8467917781984007,
        -0.26841003873954605
      ],
      [
        0.22688137837557545,
        -0.7972700141379914,
        0.44482898796780174,
        -0.05638260209710102,
        0.2515630881802148
      ],
      [
        0.15535476458052794,
        0.1653767632546066,
        1.135991394090476,
        0.21402663177906817,
        -0.34986963216164213
      ],
      [
        0.2631340330205853,
        -0.33536968624203184,
        -0.08776510552421629,
        1.2105969811022703,
        -0.5178271903982745
      ],
      [
        0.8082179529728776,
        0.02066191779276201,
        -0.895100302432588,
        0.7506060920274646,
        -0.4730140633607523
      ],
      [
        -1.7004596685088764,
        0.3287908906048579,
        0.1994573578447418,
        0.732705799369143,
        0.18975382621097853
      ],
      [
        -0.446963751193425,
        -0.6556859872495084,
        0.32049664329550637,
        0.3022865532623272,
        1.4140265758782526
      ]
    ]
  },
  "weights_ho": {
    "rows": 2,
    "cols": 8,
    "data": [
      [
        0.039133257040757624,
        1.0867399089439296,
        0.6491615025450367,
        -0.2125623421176802,
        -0.347652717804176,
        0.47780875342621054,
        -1.4155097587976415,
        0.17015119068616688
      ],
      [
        0.08081162699688568,
        -0.802522387662161,
        -1.1436838918787584,
        0.5819047623375945,
        -0.5621946516203088,
        -0.12991228781864414,
        0.12301296379494342,
        -0.4781728621413496
      ]
    ]
  },
  "bias_h": {
    "rows": 8,
    "cols": 1,
    "data": [
      [
        0.5792460890433231
      ],
      [
        -0.3098793901881146
      ],
      [
        -1.3927314212723143
      ],
      [
        -0.6181114302793971
      ],
      [
        0.7648304318800212
      ],
      [
        -0.027394114380657534
      ],
      [
        0.6686725823733459
      ],
      [
        -0.4467195743373525
      ]
    ]
  },
  "bias_o": {
    "rows": 2,
    "cols": 1,
    "data": [
      [
        -0.419352558829603
      ],
      [
        0.1302117888713633
      ]
    ]
  },
  "learning_rate": 0.1,
  "activation_function": {}
}
