{
  "input_nodes": 5,
  "hidden_nodes": 8,
  "output_nodes": 2,
  "weights_ih": {
    "rows": 8,
    "cols": 5,
    "data": [
      [
        -1.114613615415613,
        0.14574215251800093,
        0.17092305254470352,
        0.020600034967056424,
        -0.3308064893267919
      ],
      [
        1.3440417542054448,
        -0.0033554280763938293,
        -1.3120030954278885,
        -0.8689933653906007,
        -0.26841003873954605
      ],
      [
        0.22688137837557545,
        -0.7972700141379914,
        0.44482898796780174,
        -0.07851846391867383,
        0.2515630881802148
      ],
      [
        0.15535476458052794,
        0.1653767632546066,
        1.135991394090476,
        0.21402663177906817,
        -0.3436779825566786
      ],
      [
        0.2631340330205853,
        -0.3090916463384705,
        -0.08776510552421629,
        1.1309793158300305,
        -0.5178271903982745
      ],
      [
        0.8082179529728776,
        0.05895505635771604,
        -0.7889357478003898,
        0.6560923747125283,
        -0.4730140633607523
      ],
      [
        -1.6485465502391292,
        0.3287908906048579,
        0.1994573578447418,
        0.732705799369143,
        0.16773825408960777
      ],
      [
        -0.3644950378609485,
        -0.7299290570940121,
        0.32049664329550637,
        0.3022865532623272,
        1.4140265758782526
      ]
    ]
  },
  "weights_ho": {
    "rows": 2,
    "cols": 8,
    "data": [
      [
        0.039133257040757624,
        1.0867399089439296,
        0.6378512565928358,
        -0.2125623421176802,
        -0.347652717804176,
        0.5043436139973783,
        -1.4155097587976415,
        0.17015119068616688
      ],
      [
        0.08081162699688568,
        -0.802522387662161,
        -1.1436838918787584,
        0.5819047623375945,
        -0.5621946516203088,
        -0.12991228781864414,
        0.12301296379494342,
        -0.4781728621413496
      ]
    ]
  },
  "bias_h": {
    "rows": 8,
    "cols": 1,
    "data": [
      [
        0.5316828365435353
      ],
      [
        -0.3098793901881146
      ],
      [
        -1.3927314212723143
      ],
      [
        -0.4642702687413707
      ],
      [
        0.7441148677064228
      ],
      [
        -0.027394114380657534
      ],
      [
        0.6686725823733459
      ],
      [
        -0.3594298951706111
      ]
    ]
  },
  "bias_o": {
    "rows": 2,
    "cols": 1,
    "data": [
      [
        -0.419352558829603
      ],
      [
        0.1302117888713633
      ]
    ]
  },
  "learning_rate": 0.1,
  "activation_function": {}
}
